digraph Tree {
node [shape=box, fontname="helvetica"] ;
edge [fontname="helvetica"] ;
0 [label="petal width (cm) <= 0.8\nentropy = 1.58\nsamples = 105\nvalue = [37, 37, 31]\nclass = setosa"] ;
1 [label="entropy = 0.0\nsamples = 37\nvalue = [37, 0, 0]\nclass = setosa"] ;
0 -> 1 [labeldistance=2.5, labelangle=45, headlabel="True"] ;
2 [label="petal width (cm) <= 1.75\nentropy = 0.994\nsamples = 68\nvalue = [0, 37, 31]\nclass = versicolor"] ;
0 -> 2 [labeldistance=2.5, labelangle=-45, headlabel="False"] ;
3 [label="sepal width (cm) <= 2.65\nentropy = 0.384\nsamples = 40\nvalue = [0, 37, 3]\nclass = versicolor"] ;
2 -> 3 ;
4 [label="petal width (cm) <= 1.35\nentropy = 0.811\nsamples = 12\nvalue = [0, 9, 3]\nclass = versicolor"] ;
3 -> 4 ;
5 [label="entropy = 0.0\nsamples = 9\nvalue = [0, 9, 0]\nclass = versicolor"] ;
4 -> 5 ;
6 [label="entropy = 0.0\nsamples = 3\nvalue = [0, 0, 3]\nclass = virginica"] ;
4 -> 6 ;
7 [label="entropy = 0.0\nsamples = 28\nvalue = [0, 28, 0]\nclass = versicolor"] ;
3 -> 7 ;
8 [label="entropy = 0.0\nsamples = 28\nvalue = [0, 0, 28]\nclass = virginica"] ;
2 -> 8 ;
}